FANN_FLO_2.1
num_layers=3
learning_rate=0,700000
connection_rate=1,000000
network_type=0
learning_momentum=0,000000
training_algorithm=2
train_error_function=1
train_stop_function=0
cascade_output_change_fraction=0,010000
quickprop_decay=-0,000100
quickprop_mu=1,750000
rprop_increase_factor=1,200000
rprop_decrease_factor=0,500000
rprop_delta_min=0,000000
rprop_delta_max=50,000000
rprop_delta_zero=0,100000
cascade_output_stagnation_epochs=12
cascade_candidate_change_fraction=0,010000
cascade_candidate_stagnation_epochs=12
cascade_max_out_epochs=150
cascade_min_out_epochs=50
cascade_max_cand_epochs=150
cascade_min_cand_epochs=50
cascade_num_candidate_groups=2
bit_fail_limit=3,49999994039535522461e-01
cascade_candidate_limit=1,00000000000000000000e+03
cascade_weight_multiplier=4,00000005960464477539e-01
cascade_activation_functions_count=10
cascade_activation_functions=3 5 7 8 10 11 14 15 16 17 
cascade_activation_steepnesses_count=4
cascade_activation_steepnesses=2,50000000000000000000e-01 5,00000000000000000000e-01 7,50000000000000000000e-01 1,00000000000000000000e+00 
layer_sizes=9 5 3 
scale_included=0
neurons (num_inputs, activation_function, activation_steepness)=(0, 0, 0,00000000000000000000e+00) (0, 0, 0,00000000000000000000e+00) (0, 0, 0,00000000000000000000e+00) (0, 0, 0,00000000000000000000e+00) (0, 0, 0,00000000000000000000e+00) (0, 0, 0,00000000000000000000e+00) (0, 0, 0,00000000000000000000e+00) (0, 0, 0,00000000000000000000e+00) (0, 0, 0,00000000000000000000e+00) (9, 5, 9,99999977648258209229e-03) (9, 5, 9,99999977648258209229e-03) (9, 5, 9,99999977648258209229e-03) (9, 5, 9,99999977648258209229e-03) (0, 0, 0,00000000000000000000e+00) (5, 5, 9,99999977648258209229e-03) (5, 5, 9,99999977648258209229e-03) (0, 0, 0,00000000000000000000e+00) 
connections (connected_to_neuron, weight)=(0, 1,36585283279418945312e+01) (1, 4,82966156005859375000e+02) (2, 1,44875012207031250000e+03) (3, -2,48294854164123535156e+00) (4, 1,44883447265625000000e+03) (5, 1,35142564773559570312e+01) (6, -2,46049141883850097656e+00) (7, 5,57483459472656250000e+02) (8, 1,35038728713989257812e+01) (0, 1,06915130615234375000e+01) (1, -1,77356765747070312500e+02) (2, -1,25994360351562500000e+03) (3, 2,86240425109863281250e+01) (4, -1,25990454101562500000e+03) (5, 1,07098007202148437500e+01) (6, 2,88061428070068359375e+01) (7, -6,73231887817382812500e+01) (8, 1,06411018371582031250e+01) (0, 7,67721712589263916016e-01) (1, 2,66437438964843750000e+02) (2, -1,27468776702880859375e+01) (3, -1,14199661254882812500e+02) (4, -1,26352939605712890625e+01) (5, -1,05080747604370117188e+00) (6, -5,98004379272460937500e+01) (7, 6,97685852050781250000e+01) (8, -1,05227875709533691406e+00) (0, 1,34932603836059570312e+01) (1, 4,82941375732421875000e+02) (2, 1,44882788085937500000e+03) (3, -2,50463128089904785156e+00) (4, 1,44879150390625000000e+03) (5, 1,36157197952270507812e+01) (6, -2,42247033119201660156e+00) (7, 5,57483154296875000000e+02) (8, 1,35821352005004882812e+01) (9, 9,09637756347656250000e+01) (10, -7,25494232177734375000e+01) (11, 3,47858390808105468750e+01) (12, 9,09846496582031250000e+01) (13, 2,21287136077880859375e+01) (9, 8,15803718566894531250e+00) (10, -4,22661113739013671875e+00) (11, -9,58076477050781250000e+01) (12, 8,12144565582275390625e+00) (13, 7,45352783203125000000e+01) 
